## LambdaMART
## No. of trees = 1000
## No. of leaves = 10
## No. of threshold candidates = 256
## Learning rate = 0.1
## Stop early = 100

<ensemble>
	<tree id="1" weight="0.1">
		<split>
			<feature> 3 </feature>
			<threshold> 3.2300642 </threshold>
			<split pos="left">
				<feature> 3 </feature>
				<threshold> 3.1078196 </threshold>
				<split pos="left">
					<feature> 3 </feature>
					<threshold> 1.5243813 </threshold>
					<split pos="left">
						<output> -1.9287046194076538 </output>
					</split>
					<split pos="right">
						<feature> 3 </feature>
						<threshold> 2.7636075 </threshold>
						<split pos="left">
							<output> -1.0757988691329956 </output>
						</split>
						<split pos="right">
							<output> -1.9247528314590454 </output>
						</split>
					</split>
				</split>
				<split pos="right">
					<output> -1.7975335121154785 </output>
				</split>
			</split>
			<split pos="right">
				<feature> 3 </feature>
				<threshold> 3.5612235 </threshold>
				<split pos="left">
					<output> 0.927984356880188 </output>
				</split>
				<split pos="right">
					<feature> 3 </feature>
					<threshold> 4.8277845 </threshold>
					<split pos="left">
						<feature> 3 </feature>
						<threshold> 4.222002 </threshold>
						<split pos="left">
							<feature> 1 </feature>
							<threshold> 0.0 </threshold>
							<split pos="left">
								<output> -2.0 </output>
							</split>
							<split pos="right">
								<output> 0.28482353687286377 </output>
							</split>
						</split>
						<split pos="right">
							<feature> 3 </feature>
							<threshold> 4.5697203 </threshold>
							<split pos="left">
								<output> 2.0 </output>
							</split>
							<split pos="right">
								<output> 0.07623986154794693 </output>
							</split>
						</split>
					</split>
					<split pos="right">
						<output> -2.0 </output>
					</split>
				</split>
			</split>
		</split>
	</tree>
	<tree id="2" weight="0.1">
		<split>
			<feature> 3 </feature>
			<threshold> 4.222002 </threshold>
			<split pos="left">
				<feature> 1 </feature>
				<threshold> 0.0 </threshold>
				<split pos="left">
					<feature> 3 </feature>
					<threshold> 3.2300642 </threshold>
					<split pos="left">
						<feature> 3 </feature>
						<threshold> 2.7636075 </threshold>
						<split pos="left">
							<feature> 3 </feature>
							<threshold> 1.5243813 </threshold>
							<split pos="left">
								<output> -1.6751526594161987 </output>
							</split>
							<split pos="right">
								<output> -1.7352471351623535 </output>
							</split>
						</split>
						<split pos="right">
							<output> -1.6811890602111816 </output>
						</split>
					</split>
					<split pos="right">
						<feature> 3 </feature>
						<threshold> 3.5612235 </threshold>
						<split pos="left">
							<output> -1.8581948280334473 </output>
						</split>
						<split pos="right">
							<output> -1.670356273651123 </output>
						</split>
					</split>
				</split>
				<split pos="right">
					<output> -1.8397865295410156 </output>
				</split>
			</split>
			<split pos="right">
				<feature> 3 </feature>
				<threshold> 4.5697203 </threshold>
				<split pos="left">
					<output> 1.7186378240585327 </output>
				</split>
				<split pos="right">
					<feature> 3 </feature>
					<threshold> 4.8277845 </threshold>
					<split pos="left">
						<feature> 1 </feature>
						<threshold> 0.0 </threshold>
						<split pos="left">
							<output> 2.0873000621795654 </output>
						</split>
						<split pos="right">
							<output> -1.8250280618667603 </output>
						</split>
					</split>
					<split pos="right">
						<output> -1.670356273651123 </output>
					</split>
				</split>
			</split>
		</split>
	</tree>
	<tree id="3" weight="0.1">
		<split>
			<feature> 3 </feature>
			<threshold> 4.222002 </threshold>
			<split pos="left">
				<feature> 1 </feature>
				<threshold> 0.0 </threshold>
				<split pos="left">
					<feature> 3 </feature>
					<threshold> 3.2300642 </threshold>
					<split pos="left">
						<feature> 3 </feature>
						<threshold> 2.7636075 </threshold>
						<split pos="left">
							<feature> 3 </feature>
							<threshold> 1.5243813 </threshold>
							<split pos="left">
								<output> -1.480909824371338 </output>
							</split>
							<split pos="right">
								<output> -1.520588755607605 </output>
							</split>
						</split>
						<split pos="right">
							<output> -1.484919548034668 </output>
						</split>
					</split>
					<split pos="right">
						<feature> 3 </feature>
						<threshold> 3.5612235 </threshold>
						<split pos="left">
							<output> -1.6283639669418335 </output>
						</split>
						<split pos="right">
							<output> -1.477722406387329 </output>
						</split>
					</split>
				</split>
				<split pos="right">
					<output> -1.5903021097183228 </output>
				</split>
			</split>
			<split pos="right">
				<feature> 3 </feature>
				<threshold> 4.5697203 </threshold>
				<split pos="left">
					<output> 1.5099350214004517 </output>
				</split>
				<split pos="right">
					<feature> 3 </feature>
					<threshold> 4.8277845 </threshold>
					<split pos="left">
						<feature> 1 </feature>
						<threshold> 0.0 </threshold>
						<split pos="left">
							<output> 1.6067140102386475 </output>
						</split>
						<split pos="right">
							<output> -1.578932523727417 </output>
						</split>
					</split>
					<split pos="right">
						<output> -1.477722406387329 </output>
					</split>
				</split>
			</split>
		</split>
	</tree>
	<tree id="4" weight="0.1">
		<split>
			<feature> 3 </feature>
			<threshold> 4.222002 </threshold>
			<split pos="left">
				<feature> 1 </feature>
				<threshold> 0.0 </threshold>
				<split pos="left">
					<feature> 3 </feature>
					<threshold> 3.2300642 </threshold>
					<split pos="left">
						<feature> 3 </feature>
						<threshold> 2.7636075 </threshold>
						<split pos="left">
							<feature> 3 </feature>
							<threshold> 1.5243813 </threshold>
							<split pos="left">
								<output> -1.3565902709960938 </output>
							</split>
							<split pos="right">
								<output> -1.3844830989837646 </output>
							</split>
						</split>
						<split pos="right">
							<output> -1.359420895576477 </output>
						</split>
					</split>
					<split pos="right">
						<feature> 3 </feature>
						<threshold> 3.5612235 </threshold>
						<split pos="left">
							<output> -1.4590694904327393 </output>
						</split>
						<split pos="right">
							<output> -1.3543397188186646 </output>
						</split>
					</split>
				</split>
				<split pos="right">
					<output> -1.4329380989074707 </output>
				</split>
			</split>
			<split pos="right">
				<feature> 3 </feature>
				<threshold> 4.5697203 </threshold>
				<split pos="left">
					<output> 1.3771607875823975 </output>
				</split>
				<split pos="right">
					<feature> 3 </feature>
					<threshold> 4.8277845 </threshold>
					<split pos="left">
						<feature> 1 </feature>
						<threshold> 0.0 </threshold>
						<split pos="left">
							<output> 1.4441118240356445 </output>
						</split>
						<split pos="right">
							<output> -1.4250857830047607 </output>
						</split>
					</split>
					<split pos="right">
						<output> -1.3543397188186646 </output>
					</split>
				</split>
			</split>
		</split>
	</tree>
	<tree id="5" weight="0.1">
		<split>
			<feature> 3 </feature>
			<threshold> 4.222002 </threshold>
			<split pos="left">
				<feature> 1 </feature>
				<threshold> 0.0 </threshold>
				<split pos="left">
					<feature> 3 </feature>
					<threshold> 3.2300642 </threshold>
					<split pos="left">
						<feature> 3 </feature>
						<threshold> 2.7636075 </threshold>
						<split pos="left">
							<feature> 3 </feature>
							<threshold> 1.5243813 </threshold>
							<split pos="left">
								<output> -1.271295189857483 </output>
							</split>
							<split pos="right">
								<output> -1.291701316833496 </output>
							</split>
						</split>
						<split pos="right">
							<output> -1.2733722925186157 </output>
						</split>
					</split>
					<split pos="right">
						<feature> 3 </feature>
						<threshold> 3.5612235 </threshold>
						<split pos="left">
							<output> -1.3456628322601318 </output>
						</split>
						<split pos="right">
							<output> -1.269643783569336 </output>
						</split>
					</split>
				</split>
				<split pos="right">
					<output> -1.3268725872039795 </output>
				</split>
			</split>
			<split pos="right">
				<feature> 3 </feature>
				<threshold> 4.5697203 </threshold>
				<split pos="left">
					<output> 1.2864385843276978 </output>
				</split>
				<split pos="right">
					<feature> 3 </feature>
					<threshold> 4.8277845 </threshold>
					<split pos="left">
						<feature> 1 </feature>
						<threshold> 0.0 </threshold>
						<split pos="left">
							<output> 1.3348737955093384 </output>
						</split>
						<split pos="right">
							<output> -1.3211992979049683 </output>
						</split>
					</split>
					<split pos="right">
						<output> -1.269643783569336 </output>
					</split>
				</split>
			</split>
		</split>
	</tree>
	<tree id="6" weight="0.1">
		<split>
			<feature> 3 </feature>
			<threshold> 4.222002 </threshold>
			<split pos="left">
				<feature> 1 </feature>
				<threshold> 0.0 </threshold>
				<split pos="left">
					<feature> 3 </feature>
					<threshold> 3.2300642 </threshold>
					<split pos="left">
						<feature> 3 </feature>
						<threshold> 2.7636075 </threshold>
						<split pos="left">
							<feature> 3 </feature>
							<threshold> 1.5243813 </threshold>
							<split pos="left">
								<output> -1.2100681066513062 </output>
							</split>
							<split pos="right">
								<output> -1.2254081964492798 </output>
							</split>
						</split>
						<split pos="right">
							<output> -1.2116329669952393 </output>
						</split>
					</split>
					<split pos="right">
						<feature> 3 </feature>
						<threshold> 3.5612235 </threshold>
						<split pos="left">
							<output> -1.265627145767212 </output>
						</split>
						<split pos="right">
							<output> -1.2088236808776855 </output>
						</split>
					</split>
				</split>
				<split pos="right">
					<output> -1.2516968250274658 </output>
				</split>
			</split>
			<split pos="right">
				<feature> 3 </feature>
				<threshold> 4.5697203 </threshold>
				<split pos="left">
					<output> 1.2215077877044678 </output>
				</split>
				<split pos="right">
					<feature> 3 </feature>
					<threshold> 4.8277845 </threshold>
					<split pos="left">
						<feature> 1 </feature>
						<threshold> 0.0 </threshold>
						<split pos="left">
							<output> 1.2576223611831665 </output>
						</split>
						<split pos="right">
							<output> -1.2474713325500488 </output>
						</split>
					</split>
					<split pos="right">
						<output> -1.2088236808776855 </output>
					</split>
				</split>
			</split>
		</split>
	</tree>
	<tree id="7" weight="0.1">
		<split>
			<feature> 3 </feature>
			<threshold> 4.222002 </threshold>
			<split pos="left">
				<feature> 1 </feature>
				<threshold> 0.0 </threshold>
				<split pos="left">
					<feature> 3 </feature>
					<threshold> 3.2300642 </threshold>
					<split pos="left">
						<feature> 3 </feature>
						<threshold> 2.7636075 </threshold>
						<split pos="left">
							<feature> 3 </feature>
							<threshold> 1.5243813 </threshold>
							<split pos="left">
								<output> -1.164724349975586 </output>
							</split>
							<split pos="right">
								<output> -1.1764822006225586 </output>
							</split>
						</split>
						<split pos="right">
							<output> -1.1659260988235474 </output>
						</split>
					</split>
					<split pos="right">
						<feature> 3 </feature>
						<threshold> 3.5612235 </threshold>
						<split pos="left">
							<output> -1.2070890665054321 </output>
						</split>
						<split pos="right">
							<output> -1.1637691259384155 </output>
						</split>
					</split>
				</split>
				<split pos="right">
					<output> -1.1965444087982178 </output>
				</split>
			</split>
			<split pos="right">
				<feature> 3 </feature>
				<threshold> 4.5697203 </threshold>
				<split pos="left">
					<output> 1.1735261678695679 </output>
				</split>
				<split pos="right">
					<feature> 3 </feature>
					<threshold> 4.8277845 </threshold>
					<split pos="left">
						<feature> 1 </feature>
						<threshold> 0.0 </threshold>
						<split pos="left">
							<output> 1.201038122177124 </output>
						</split>
						<split pos="right">
							<output> -1.1933294534683228 </output>
						</split>
					</split>
					<split pos="right">
						<output> -1.1637691259384155 </output>
					</split>
				</split>
			</split>
		</split>
	</tree>
	<tree id="8" weight="0.1">
		<split>
			<feature> 3 </feature>
			<threshold> 4.222002 </threshold>
			<split pos="left">
				<feature> 1 </feature>
				<threshold> 0.0 </threshold>
				<split pos="left">
					<feature> 3 </feature>
					<threshold> 3.2300642 </threshold>
					<split pos="left">
						<feature> 3 </feature>
						<threshold> 2.7636075 </threshold>
						<split pos="left">
							<feature> 3 </feature>
							<threshold> 1.5243813 </threshold>
							<split pos="left">
								<output> -1.1303797960281372 </output>
							</split>
							<split pos="right">
								<output> -1.139521598815918 </output>
							</split>
						</split>
						<split pos="right">
							<output> -1.1313154697418213 </output>
						</split>
					</split>
					<split pos="right">
						<feature> 3 </feature>
						<threshold> 3.5612235 </threshold>
						<split pos="left">
							<output> -1.1631630659103394 </output>
						</split>
						<split pos="right">
							<output> -1.1296360492706299 </output>
						</split>
					</split>
				</split>
				<split pos="right">
					<output> -1.1550673246383667 </output>
				</split>
			</split>
			<split pos="right">
				<feature> 3 </feature>
				<threshold> 4.5697203 </threshold>
				<split pos="left">
					<output> 1.1372439861297607 </output>
				</split>
				<split pos="right">
					<feature> 3 </feature>
					<threshold> 4.8277845 </threshold>
					<split pos="left">
						<feature> 1 </feature>
						<threshold> 0.0 </threshold>
						<split pos="left">
							<output> 1.1585352420806885 </output>
						</split>
						<split pos="right">
							<output> -1.1525834798812866 </output>
						</split>
					</split>
					<split pos="right">
						<output> -1.1296360492706299 </output>
					</split>
				</split>
			</split>
		</split>
	</tree>
	<tree id="9" weight="0.1">
		<split>
			<feature> 3 </feature>
			<threshold> 4.222002 </threshold>
			<split pos="left">
				<feature> 1 </feature>
				<threshold> 0.0 </threshold>
				<split pos="left">
					<feature> 3 </feature>
					<threshold> 3.2300642 </threshold>
					<split pos="left">
						<feature> 3 </feature>
						<threshold> 2.7636075 </threshold>
						<split pos="left">
							<feature> 3 </feature>
							<threshold> 1.5243813 </threshold>
							<split pos="left">
								<output> -1.1039276123046875 </output>
							</split>
							<split pos="right">
								<output> -1.1111128330230713 </output>
							</split>
						</split>
						<split pos="right">
							<output> -1.1046637296676636 </output>
						</split>
					</split>
					<split pos="right">
						<feature> 3 </feature>
						<threshold> 3.5612235 </threshold>
						<split pos="left">
							<output> -1.1295690536499023 </output>
						</split>
						<split pos="right">
							<output> -1.1033425331115723 </output>
						</split>
					</split>
				</split>
				<split pos="right">
					<output> -1.1232973337173462 </output>
				</split>
			</split>
			<split pos="right">
				<feature> 3 </feature>
				<threshold> 4.5697203 </threshold>
				<split pos="left">
					<output> 1.1093354225158691 </output>
				</split>
				<split pos="right">
					<feature> 3 </feature>
					<threshold> 4.8277845 </threshold>
					<split pos="left">
						<feature> 1 </feature>
						<threshold> 0.0 </threshold>
						<split pos="left">
							<output> 1.1260093450546265 </output>
						</split>
						<split pos="right">
							<output> -1.12135648727417 </output>
						</split>
					</split>
					<split pos="right">
						<output> -1.1033425331115723 </output>
					</split>
				</split>
			</split>
		</split>
	</tree>
	<tree id="10" weight="0.1">
		<split>
			<feature> 3 </feature>
			<threshold> 4.222002 </threshold>
			<split pos="left">
				<feature> 3 </feature>
				<threshold> 3.9468048 </threshold>
				<split pos="left">
					<feature> 3 </feature>
					<threshold> 3.2300642 </threshold>
					<split pos="left">
						<feature> 3 </feature>
						<threshold> 2.7636075 </threshold>
						<split pos="left">
							<feature> 3 </feature>
							<threshold> 1.5243813 </threshold>
							<split pos="left">
								<output> -1.0832942724227905 </output>
							</split>
							<split pos="right">
								<output> -1.0889884233474731 </output>
							</split>
						</split>
						<split pos="right">
							<output> -1.0838781595230103 </output>
						</split>
					</split>
					<split pos="right">
						<feature> 3 </feature>
						<threshold> 3.5612235 </threshold>
						<split pos="left">
							<output> -1.1035016775131226 </output>
						</split>
						<split pos="right">
							<output> -1.0828301906585693 </output>
						</split>
					</split>
				</split>
				<split pos="right">
					<output> -1.0986220836639404 </output>
				</split>
			</split>
			<split pos="right">
				<feature> 3 </feature>
				<threshold> 4.5697203 </threshold>
				<split pos="left">
					<output> 1.087587833404541 </output>
				</split>
				<split pos="right">
					<feature> 3 </feature>
					<threshold> 4.8277845 </threshold>
					<split pos="left">
						<feature> 1 </feature>
						<threshold> 0.0 </threshold>
						<split pos="left">
							<output> 1.1007648706436157 </output>
						</split>
						<split pos="right">
							<output> -1.0970929861068726 </output>
						</split>
					</split>
					<split pos="right">
						<output> -1.0828301906585693 </output>
					</split>
				</split>
			</split>
		</split>
	</tree>
	<tree id="11" weight="0.1">
		<split>
			<feature> 3 </feature>
			<threshold> 4.222002 </threshold>
			<split pos="left">
				<feature> 1 </feature>
				<threshold> 0.0 </threshold>
				<split pos="left">
					<feature> 3 </feature>
					<threshold> 3.2300642 </threshold>
					<split pos="left">
						<feature> 3 </feature>
						<threshold> 2.7636075 </threshold>
						<split pos="left">
							<feature> 3 </feature>
							<threshold> 1.5243813 </threshold>
							<split pos="left">
								<output> -1.067041277885437 </output>
							</split>
							<split pos="right">
								<output> -1.0715830326080322 </output>
							</split>
						</split>
						<split pos="right">
							<output> -1.0675075054168701 </output>
						</split>
					</split>
					<split pos="right">
						<feature> 3 </feature>
						<threshold> 3.5612235 </threshold>
						<split pos="left">
							<output> -1.083045244216919 </output>
						</split>
						<split pos="right">
							<output> -1.0666707754135132 </output>
						</split>
					</split>
				</split>
				<split pos="right">
					<output> -1.079250454902649 </output>
				</split>
			</split>
			<split pos="right">
				<feature> 3 </feature>
				<threshold> 4.5697203 </threshold>
				<split pos="left">
					<output> 1.0704705715179443 </output>
				</split>
				<split pos="right">
					<feature> 3 </feature>
					<threshold> 4.8277845 </threshold>
					<split pos="left">
						<feature> 1 </feature>
						<threshold> 0.0 </threshold>
						<split pos="left">
							<output> 1.0809581279754639 </output>
						</split>
						<split pos="right">
							<output> -1.078039288520813 </output>
						</split>
					</split>
					<split pos="right">
						<output> -1.0666707754135132 </output>
					</split>
				</split>
			</split>
		</split>
	</tree>
	<tree id="12" weight="0.1">
		<split>
			<feature> 3 </feature>
			<threshold> 4.222002 </threshold>
			<split pos="left">
				<feature> 1 </feature>
				<threshold> 0.0 </threshold>
				<split pos="left">
					<feature> 3 </feature>
					<threshold> 3.2300642 </threshold>
					<split pos="left">
						<feature> 3 </feature>
						<threshold> 2.7636075 </threshold>
						<split pos="left">
							<feature> 3 </feature>
							<threshold> 1.5243813 </threshold>
							<split pos="left">
								<output> -1.054140567779541 </output>
							</split>
							<split pos="right">
								<output> -1.057781457901001 </output>
							</split>
						</split>
						<split pos="right">
							<output> -1.0545145273208618 </output>
						</split>
					</split>
					<split pos="right">
						<feature> 3 </feature>
						<threshold> 3.5612235 </threshold>
						<split pos="left">
							<output> -1.0668472051620483 </output>
						</split>
						<split pos="right">
							<output> -1.053843379020691 </output>
						</split>
					</split>
				</split>
				<split pos="right">
					<output> -1.0639150142669678 </output>
				</split>
			</split>
			<split pos="right">
				<feature> 3 </feature>
				<threshold> 4.5697203 </threshold>
				<split pos="left">
					<output> 1.0568921566009521 </output>
				</split>
				<split pos="right">
					<feature> 3 </feature>
					<threshold> 4.8277845 </threshold>
					<split pos="left">
						<feature> 1 </feature>
						<threshold> 0.0 </threshold>
						<split pos="left">
							<output> 1.0652856826782227 </output>
						</split>
						<split pos="right">
							<output> -1.0629523992538452 </output>
						</split>
					</split>
					<split pos="right">
						<output> -1.053843379020691 </output>
					</split>
				</split>
			</split>
		</split>
	</tree>
	<tree id="13" weight="0.1">
		<split>
			<feature> 3 </feature>
			<threshold> 4.222002 </threshold>
			<split pos="left">
				<feature> 3 </feature>
				<threshold> 3.9468048 </threshold>
				<split pos="left">
					<feature> 3 </feature>
					<threshold> 3.2300642 </threshold>
					<split pos="left">
						<feature> 3 </feature>
						<threshold> 2.7636075 </threshold>
						<split pos="left">
							<feature> 3 </feature>
							<threshold> 1.5243813 </threshold>
							<split pos="left">
								<output> -1.0438389778137207 </output>
							</split>
							<split pos="right">
								<output> -1.046769142150879 </output>
							</split>
						</split>
						<split pos="right">
							<output> -1.044140100479126 </output>
						</split>
					</split>
					<split pos="right">
						<feature> 3 </feature>
						<threshold> 3.5612235 </threshold>
						<split pos="left">
							<output> -1.0539261102676392 </output>
						</split>
						<split pos="right">
							<output> -1.0435997247695923 </output>
						</split>
					</split>
				</split>
				<split pos="right">
					<output> -1.0516941547393799 </output>
				</split>
			</split>
			<split pos="right">
				<feature> 3 </feature>
				<threshold> 4.5697203 </threshold>
				<split pos="left">
					<output> 1.046054482460022 </output>
				</split>
				<split pos="right">
					<feature> 3 </feature>
					<threshold> 4.8277845 </threshold>
					<split pos="left">
						<feature> 1 </feature>
						<threshold> 0.0 </threshold>
						<split pos="left">
							<output> 1.0528017282485962 </output>
						</split>
						<split pos="right">
							<output> -1.0509283542633057 </output>
						</split>
					</split>
					<split pos="right">
						<output> -1.0435997247695923 </output>
					</split>
				</split>
			</split>
		</split>
	</tree>
	<tree id="14" weight="0.1">
		<split>
			<feature> 3 </feature>
			<threshold> 4.222002 </threshold>
			<split pos="left">
				<feature> 1 </feature>
				<threshold> 0.0 </threshold>
				<split pos="left">
					<feature> 3 </feature>
					<threshold> 3.2300642 </threshold>
					<split pos="left">
						<feature> 3 </feature>
						<threshold> 2.7636075 </threshold>
						<split pos="left">
							<feature> 3 </feature>
							<threshold> 1.5243813 </threshold>
							<split pos="left">
								<output> -1.0355733633041382 </output>
							</split>
							<split pos="right">
								<output> -1.0379388332366943 </output>
							</split>
						</split>
						<split pos="right">
							<output> -1.0358166694641113 </output>
						</split>
					</split>
					<split pos="right">
						<feature> 3 </feature>
						<threshold> 3.5612235 </threshold>
						<split pos="left">
							<output> -1.0435539484024048 </output>
						</split>
						<split pos="right">
							<output> -1.0353800058364868 </output>
						</split>
					</split>
				</split>
				<split pos="right">
					<output> -1.0419038534164429 </output>
				</split>
			</split>
			<split pos="right">
				<feature> 3 </feature>
				<threshold> 4.5697203 </threshold>
				<split pos="left">
					<output> 1.037361979484558 </output>
				</split>
				<split pos="right">
					<feature> 3 </feature>
					<threshold> 4.8277845 </threshold>
					<split pos="left">
						<feature> 1 </feature>
						<threshold> 0.0 </threshold>
						<split pos="left">
							<output> 1.0428048372268677 </output>
						</split>
						<split pos="right">
							<output> -1.0412958860397339 </output>
						</split>
					</split>
					<split pos="right">
						<output> -1.0353800058364868 </output>
					</split>
				</split>
			</split>
		</split>
	</tree>
	<tree id="15" weight="0.1">
		<split>
			<feature> 3 </feature>
			<threshold> 4.222002 </threshold>
			<split pos="left">
				<feature> 1 </feature>
				<threshold> 0.0 </threshold>
				<split pos="left">
					<feature> 3 </feature>
					<threshold> 3.2300642 </threshold>
					<split pos="left">
						<feature> 3 </feature>
						<threshold> 2.7636075 </threshold>
						<split pos="left">
							<feature> 3 </feature>
							<threshold> 1.5243813 </threshold>
							<split pos="left">
								<output> -1.0289161205291748 </output>
							</split>
							<split pos="right">
								<output> -1.0308302640914917 </output>
							</split>
						</split>
						<split pos="right">
							<output> -1.0291131734848022 </output>
						</split>
					</split>
					<split pos="right">
						<feature> 3 </feature>
						<threshold> 3.5612235 </threshold>
						<split pos="left">
							<output> -1.035180687904358 </output>
						</split>
						<split pos="right">
							<output> -1.028759479522705 </output>
						</split>
					</split>
				</split>
				<split pos="right">
					<output> -1.0340275764465332 </output>
				</split>
			</split>
			<split pos="right">
				<feature> 3 </feature>
				<threshold> 4.5697203 </threshold>
				<split pos="left">
					<output> 1.0303627252578735 </output>
				</split>
				<split pos="right">
					<feature> 3 </feature>
					<threshold> 4.8277845 </threshold>
					<split pos="left">
						<feature> 1 </feature>
						<threshold> 0.0 </threshold>
						<split pos="left">
							<output> 1.0347657203674316 </output>
						</split>
						<split pos="right">
							<output> -1.033547282218933 </output>
						</split>
					</split>
					<split pos="right">
						<output> -1.028759479522705 </output>
					</split>
				</split>
			</split>
		</split>
	</tree>
	<tree id="16" weight="0.1">
		<split>
			<feature> 3 </feature>
			<threshold> 4.222002 </threshold>
			<split pos="left">
				<feature> 1 </feature>
				<threshold> 0.0 </threshold>
				<split pos="left">
					<feature> 3 </feature>
					<threshold> 3.2300642 </threshold>
					<split pos="left">
						<feature> 3 </feature>
						<threshold> 2.7636075 </threshold>
						<split pos="left">
							<feature> 3 </feature>
							<threshold> 1.5243813 </threshold>
							<split pos="left">
								<output> -1.0235379934310913 </output>
							</split>
							<split pos="right">
								<output> -1.0250897407531738 </output>
							</split>
						</split>
						<split pos="right">
							<output> -1.0236979722976685 </output>
						</split>
					</split>
					<split pos="right">
						<feature> 3 </feature>
						<threshold> 3.5612235 </threshold>
						<split pos="left">
							<output> -1.0283843278884888 </output>
						</split>
						<split pos="right">
							<output> -1.0234107971191406 </output>
						</split>
					</split>
				</split>
				<split pos="right">
					<output> -1.0276689529418945 </output>
				</split>
			</split>
			<split pos="right">
				<feature> 3 </feature>
				<threshold> 4.5697203 </threshold>
				<split pos="left">
					<output> 1.0247091054916382 </output>
				</split>
				<split pos="right">
					<feature> 3 </feature>
					<threshold> 4.8277845 </threshold>
					<split pos="left">
						<feature> 1 </feature>
						<threshold> 0.0 </threshold>
						<split pos="left">
							<output> 1.0282790660858154 </output>
						</split>
						<split pos="right">
							<output> -1.0272938013076782 </output>
						</split>
					</split>
					<split pos="right">
						<output> -1.0234107971191406 </output>
					</split>
				</split>
			</split>
		</split>
	</tree>
	<tree id="17" weight="0.1">
		<split>
			<feature> 3 </feature>
			<threshold> 4.222002 </threshold>
			<split pos="left">
				<feature> 1 </feature>
				<threshold> 0.0 </threshold>
				<split pos="left">
					<feature> 3 </feature>
					<threshold> 3.2300642 </threshold>
					<split pos="left">
						<feature> 3 </feature>
						<threshold> 2.7636075 </threshold>
						<split pos="left">
							<feature> 3 </feature>
							<threshold> 1.5243813 </threshold>
							<split pos="left">
								<output> -1.019182562828064 </output>
							</split>
							<split pos="right">
								<output> -1.0204421281814575 </output>
							</split>
						</split>
						<split pos="right">
							<output> -1.0193125009536743 </output>
						</split>
					</split>
					<split pos="right">
						<feature> 3 </feature>
						<threshold> 3.5612235 </threshold>
						<split pos="left">
							<output> -1.022835612297058 </output>
						</split>
						<split pos="right">
							<output> -1.0190792083740234 </output>
						</split>
					</split>
				</split>
				<split pos="right">
					<output> -1.0225210189819336 </output>
				</split>
			</split>
			<split pos="right">
				<feature> 3 </feature>
				<threshold> 4.5697203 </threshold>
				<split pos="left">
					<output> 1.0201307535171509 </output>
				</split>
				<split pos="right">
					<feature> 3 </feature>
					<threshold> 4.8277845 </threshold>
					<split pos="left">
						<feature> 1 </feature>
						<threshold> 0.0 </threshold>
						<split pos="left">
							<output> 1.0230306386947632 </output>
						</split>
						<split pos="right">
							<output> -1.0222333669662476 </output>
						</split>
					</split>
					<split pos="right">
						<output> -1.0190792083740234 </output>
					</split>
				</split>
			</split>
		</split>
	</tree>
	<tree id="18" weight="0.1">
		<split>
			<feature> 3 </feature>
			<threshold> 4.222002 </threshold>
			<split pos="left">
				<feature> 1 </feature>
				<threshold> 0.0 </threshold>
				<split pos="left">
					<feature> 3 </feature>
					<threshold> 3.2300642 </threshold>
					<split pos="left">
						<feature> 3 </feature>
						<threshold> 2.7636075 </threshold>
						<split pos="left">
							<feature> 3 </feature>
							<threshold> 1.5243813 </threshold>
							<split pos="left">
								<output> -1.0156487226486206 </output>
							</split>
							<split pos="right">
								<output> -1.016671895980835 </output>
							</split>
						</split>
						<split pos="right">
							<output> -1.0157545804977417 </output>
						</split>
					</split>
					<split pos="right">
						<feature> 3 </feature>
						<threshold> 3.5612235 </threshold>
						<split pos="left">
							<output> -1.0182753801345825 </output>
						</split>
						<split pos="right">
							<output> -1.0155646800994873 </output>
						</split>
					</split>
				</split>
				<split pos="right">
					<output> -1.0183429718017578 </output>
				</split>
			</split>
			<split pos="right">
				<feature> 3 </feature>
				<threshold> 4.5697203 </threshold>
				<split pos="left">
					<output> 1.0164159536361694 </output>
				</split>
				<split pos="right">
					<feature> 3 </feature>
					<threshold> 4.8277845 </threshold>
					<split pos="left">
						<feature> 1 </feature>
						<threshold> 0.0 </threshold>
						<split pos="left">
							<output> 1.0187747478485107 </output>
						</split>
						<split pos="right">
							<output> -1.018129825592041 </output>
						</split>
					</split>
					<split pos="right">
						<output> -1.0155646800994873 </output>
					</split>
				</split>
			</split>
		</split>
	</tree>
	<tree id="19" weight="0.1">
		<split>
			<feature> 3 </feature>
			<threshold> 4.222002 </threshold>
			<split pos="left">
				<feature> 1 </feature>
				<threshold> 0.0 </threshold>
				<split pos="left">
					<feature> 3 </feature>
					<threshold> 3.2300642 </threshold>
					<split pos="left">
						<feature> 3 </feature>
						<threshold> 2.7636075 </threshold>
						<split pos="left">
							<feature> 3 </feature>
							<threshold> 1.5243813 </threshold>
							<split pos="left">
								<output> -1.0127772092819214 </output>
							</split>
							<split pos="right">
								<output> -1.0136082172393799 </output>
							</split>
						</split>
						<split pos="right">
							<output> -1.0128633975982666 </output>
						</split>
					</split>
					<split pos="right">
						<feature> 3 </feature>
						<threshold> 3.5612235 </threshold>
						<split pos="left">
							<output> -1.0144966840744019 </output>
						</split>
						<split pos="right">
							<output> -1.0127086639404297 </output>
						</split>
					</split>
				</split>
				<split pos="right">
					<output> -1.0149450302124023 </output>
				</split>
			</split>
			<split pos="right">
				<feature> 3 </feature>
				<threshold> 4.5697203 </threshold>
				<split pos="left">
					<output> 1.0133963823318481 </output>
				</split>
				<split pos="right">
					<feature> 3 </feature>
					<threshold> 4.8277845 </threshold>
					<split pos="left">
						<feature> 1 </feature>
						<threshold> 0.0 </threshold>
						<split pos="left">
							<output> 1.0153175592422485 </output>
						</split>
						<split pos="right">
							<output> -1.0147967338562012 </output>
						</split>
					</split>
					<split pos="right">
						<output> -1.0127086639404297 </output>
					</split>
				</split>
			</split>
		</split>
	</tree>
	<tree id="20" weight="0.1">
		<split>
			<feature> 3 </feature>
			<threshold> 4.222002 </threshold>
			<split pos="left">
				<feature> 1 </feature>
				<threshold> 0.0 </threshold>
				<split pos="left">
					<feature> 3 </feature>
					<threshold> 3.2300642 </threshold>
					<split pos="left">
						<feature> 3 </feature>
						<threshold> 2.7636075 </threshold>
						<split pos="left">
							<feature> 3 </feature>
							<threshold> 1.5243813 </threshold>
							<split pos="left">
								<output> -1.0104413032531738 </output>
							</split>
							<split pos="right">
								<output> -1.0111160278320312 </output>
							</split>
						</split>
						<split pos="right">
							<output> -1.0105115175247192 </output>
						</split>
					</split>
					<split pos="right">
						<feature> 3 </feature>
						<threshold> 3.5612235 </threshold>
						<split pos="left">
							<output> -1.0113320350646973 </output>
						</split>
						<split pos="right">
							<output> -1.010385274887085 </output>
						</split>
					</split>
				</split>
				<split pos="right">
					<output> -1.0121757984161377 </output>
				</split>
			</split>
			<split pos="right">
				<feature> 3 </feature>
				<threshold> 4.5697203 </threshold>
				<split pos="left">
					<output> 1.0109387636184692 </output>
				</split>
				<split pos="right">
					<feature> 3 </feature>
					<threshold> 4.8277845 </threshold>
					<split pos="left">
						<feature> 1 </feature>
						<threshold> 0.0 </threshold>
						<split pos="left">
							<output> 1.0125051736831665 </output>
						</split>
						<split pos="right">
							<output> -1.012086033821106 </output>
						</split>
					</split>
					<split pos="right">
						<output> -1.010385274887085 </output>
					</split>
				</split>
			</split>
		</split>
	</tree>
	<tree id="21" weight="0.1">
		<split>
			<feature> 3 </feature>
			<threshold> 4.222002 </threshold>
			<split pos="left">
				<feature> 1 </feature>
				<threshold> 0.0 </threshold>
				<split pos="left">
					<feature> 3 </feature>
					<threshold> 3.2300642 </threshold>
					<split pos="left">
						<feature> 3 </feature>
						<threshold> 2.7636075 </threshold>
						<split pos="left">
							<feature> 3 </feature>
							<threshold> 1.5243813 </threshold>
							<split pos="left">
								<output> -1.0085394382476807 </output>
							</split>
							<split pos="right">
								<output> -1.0090863704681396 </output>
							</split>
						</split>
						<split pos="right">
							<output> -1.008596658706665 </output>
						</split>
					</split>
					<split pos="right">
						<feature> 3 </feature>
						<threshold> 3.5612235 </threshold>
						<split pos="left">
							<output> -1.0086437463760376 </output>
						</split>
						<split pos="right">
							<output> -1.0084937810897827 </output>
						</split>
					</split>
				</split>
				<split pos="right">
					<output> -1.0099149942398071 </output>
				</split>
			</split>
			<split pos="right">
				<feature> 3 </feature>
				<threshold> 4.5697203 </threshold>
				<split pos="left">
					<output> 1.0089365243911743 </output>
				</split>
				<split pos="right">
					<feature> 3 </feature>
					<threshold> 4.8277845 </threshold>
					<split pos="left">
						<feature> 1 </feature>
						<threshold> 0.0 </threshold>
						<split pos="left">
							<output> 1.0102146863937378 </output>
						</split>
						<split pos="right">
							<output> -1.009879231452942 </output>
						</split>
					</split>
					<split pos="right">
						<output> -1.0084937810897827 </output>
					</split>
				</split>
			</split>
		</split>
	</tree>
	<tree id="22" weight="0.1">
		<split>
			<feature> 3 </feature>
			<threshold> 4.222002 </threshold>
			<split pos="left">
				<feature> 1 </feature>
				<threshold> 0.0 </threshold>
				<split pos="left">
					<feature> 3 </feature>
					<threshold> 3.2300642 </threshold>
					<split pos="left">
						<feature> 3 </feature>
						<threshold> 2.7636075 </threshold>
						<split pos="left">
							<feature> 3 </feature>
							<threshold> 1.5243813 </threshold>
							<split pos="left">
								<output> -1.0069903135299683 </output>
							</split>
							<split pos="right">
								<output> -1.0074325799942017 </output>
							</split>
						</split>
						<split pos="right">
							<output> -1.0070371627807617 </output>
						</split>
					</split>
					<split pos="right">
						<feature> 3 </feature>
						<threshold> 3.5612235 </threshold>
						<split pos="left">
							<output> -1.0063177347183228 </output>
						</split>
						<split pos="right">
							<output> -1.0069531202316284 </output>
						</split>
					</split>
				</split>
				<split pos="right">
					<output> -1.008064866065979 </output>
				</split>
			</split>
			<split pos="right">
				<feature> 3 </feature>
				<threshold> 4.5697203 </threshold>
				<split pos="left">
					<output> 1.0073037147521973 </output>
				</split>
				<split pos="right">
					<feature> 3 </feature>
					<threshold> 4.8277845 </threshold>
					<split pos="left">
						<feature> 1 </feature>
						<threshold> 0.0 </threshold>
						<split pos="left">
							<output> 1.0083470344543457 </output>
						</split>
						<split pos="right">
							<output> -1.0080814361572266 </output>
						</split>
					</split>
					<split pos="right">
						<output> -1.0069531202316284 </output>
					</split>
				</split>
			</split>
		</split>
	</tree>
	<tree id="23" weight="0.1">
		<split>
			<feature> 3 </feature>
			<threshold> 4.222002 </threshold>
			<split pos="left">
				<feature> 1 </feature>
				<threshold> 0.0 </threshold>
				<split pos="left">
					<feature> 3 </feature>
					<threshold> 3.2300642 </threshold>
					<split pos="left">
						<feature> 3 </feature>
						<threshold> 2.7636075 </threshold>
						<split pos="left">
							<feature> 3 </feature>
							<threshold> 1.5243813 </threshold>
							<split pos="left">
								<output> -1.0057286024093628 </output>
							</split>
							<split pos="right">
								<output> -1.0060844421386719 </output>
							</split>
						</split>
						<split pos="right">
							<output> -1.0057668685913086 </output>
						</split>
					</split>
					<split pos="right">
						<feature> 3 </feature>
						<threshold> 3.5612235 </threshold>
						<split pos="left">
							<output> -1.0042556524276733 </output>
						</split>
						<split pos="right">
							<output> -1.0056982040405273 </output>
						</split>
					</split>
				</split>
				<split pos="right">
					<output> -1.006546974182129 </output>
				</split>
			</split>
			<split pos="right">
				<feature> 3 </feature>
				<threshold> 4.5697203 </threshold>
				<split pos="left">
					<output> 1.005971074104309 </output>
				</split>
				<split pos="right">
					<feature> 3 </feature>
					<threshold> 4.8277845 </threshold>
					<split pos="left">
						<feature> 1 </feature>
						<threshold> 0.0 </threshold>
						<split pos="left">
							<output> 1.0068235397338867 </output>
						</split>
						<split pos="right">
							<output> -1.0066163539886475 </output>
						</split>
					</split>
					<split pos="right">
						<output> -1.0056982040405273 </output>
					</split>
				</split>
			</split>
		</split>
	</tree>
	<tree id="24" weight="0.1">
		<split>
			<feature> 3 </feature>
			<threshold> 4.222002 </threshold>
			<split pos="left">
				<feature> 3 </feature>
				<threshold> 3.9468048 </threshold>
				<split pos="left">
					<feature> 3 </feature>
					<threshold> 3.2300642 </threshold>
					<split pos="left">
						<feature> 3 </feature>
						<threshold> 2.7636075 </threshold>
						<split pos="left">
							<feature> 3 </feature>
							<threshold> 1.5243813 </threshold>
							<split pos="left">
								<output> -1.0047012567520142 </output>
							</split>
							<split pos="right">
								<output> -1.0049853324890137 </output>
							</split>
						</split>
						<split pos="right">
							<output> -1.004732608795166 </output>
						</split>
					</split>
					<split pos="right">
						<feature> 3 </feature>
						<threshold> 3.5612235 </threshold>
						<split pos="left">
							<output> -1.00237238407135 </output>
						</split>
						<split pos="right">
							<output> -1.004676342010498 </output>
						</split>
					</split>
				</split>
				<split pos="right">
					<output> -1.0052975416183472 </output>
				</split>
			</split>
			<split pos="right">
				<feature> 3 </feature>
				<threshold> 4.5697203 </threshold>
				<split pos="left">
					<output> 1.004883050918579 </output>
				</split>
				<split pos="right">
					<feature> 3 </feature>
					<threshold> 4.8277845 </threshold>
					<split pos="left">
						<feature> 1 </feature>
						<threshold> 0.0 </threshold>
						<split pos="left">
							<output> 1.0055797100067139 </output>
						</split>
						<split pos="right">
							<output> -1.005422592163086 </output>
						</split>
					</split>
					<split pos="right">
						<output> -1.004676342010498 </output>
					</split>
				</split>
			</split>
		</split>
	</tree>
	<tree id="25" weight="0.1">
		<split>
			<feature> 3 </feature>
			<threshold> 4.222002 </threshold>
			<split pos="left">
				<feature> 1 </feature>
				<threshold> 0.0 </threshold>
				<split pos="left">
					<feature> 3 </feature>
					<threshold> 3.2300642 </threshold>
					<split pos="left">
						<feature> 3 </feature>
						<threshold> 2.7636075 </threshold>
						<split pos="left">
							<feature> 3 </feature>
							<threshold> 1.5243813 </threshold>
							<split pos="left">
								<output> -1.0038655996322632 </output>
							</split>
							<split pos="right">
								<output> -1.0040897130966187 </output>
							</split>
						</split>
						<split pos="right">
							<output> -1.0038912296295166 </output>
						</split>
					</split>
					<split pos="right">
						<feature> 3 </feature>
						<threshold> 3.5612235 </threshold>
						<split pos="left">
							<output> -1.0005905628204346 </output>
						</split>
						<split pos="right">
							<output> -1.00384521484375 </output>
						</split>
					</split>
				</split>
				<split pos="right">
					<output> -1.0042645931243896 </output>
				</split>
			</split>
			<split pos="right">
				<feature> 3 </feature>
				<threshold> 4.5697203 </threshold>
				<split pos="left">
					<output> 1.0039939880371094 </output>
				</split>
				<split pos="right">
					<feature> 3 </feature>
					<threshold> 4.8277845 </threshold>
					<split pos="left">
						<feature> 1 </feature>
						<threshold> 0.0 </threshold>
						<split pos="left">
							<output> 1.0045636892318726 </output>
						</split>
						<split pos="right">
							<output> -1.0044499635696411 </output>
						</split>
					</split>
					<split pos="right">
						<output> -1.00384521484375 </output>
					</split>
				</split>
			</split>
		</split>
	</tree>
	<tree id="26" weight="0.1">
		<split>
			<feature> 3 </feature>
			<threshold> 4.222002 </threshold>
			<split pos="left">
				<feature> 1 </feature>
				<threshold> 0.0 </threshold>
				<split pos="left">
					<feature> 3 </feature>
					<threshold> 3.2300642 </threshold>
					<split pos="left">
						<feature> 3 </feature>
						<threshold> 2.7636075 </threshold>
						<split pos="left">
							<feature> 3 </feature>
							<threshold> 1.5243813 </threshold>
							<split pos="left">
								<output> -1.0031870603561401 </output>
							</split>
							<split pos="right">
								<output> -1.0033602714538574 </output>
							</split>
						</split>
						<split pos="right">
							<output> -1.003208041191101 </output>
						</split>
					</split>
					<split pos="right">
						<feature> 3 </feature>
						<threshold> 3.5612235 </threshold>
						<split pos="left">
							<output> -0.9988382458686829 </output>
						</split>
						<split pos="right">
							<output> -1.003170371055603 </output>
						</split>
					</split>
				</split>
				<split pos="right">
					<output> -1.0034054517745972 </output>
				</split>
			</split>
			<split pos="right">
				<feature> 3 </feature>
				<threshold> 4.5697203 </threshold>
				<split pos="left">
					<output> 1.0032676458358765 </output>
				</split>
				<split pos="right">
					<feature> 3 </feature>
					<threshold> 4.8277845 </threshold>
					<split pos="left">
						<feature> 1 </feature>
						<threshold> 0.0 </threshold>
						<split pos="left">
							<output> 1.0037333965301514 </output>
						</split>
						<split pos="right">
							<output> -1.0036585330963135 </output>
						</split>
					</split>
					<split pos="right">
						<output> -1.003170371055603 </output>
					</split>
				</split>
			</split>
		</split>
	</tree>
	<tree id="27" weight="0.1">
		<split>
			<feature> 3 </feature>
			<threshold> 4.222002 </threshold>
			<split pos="left">
				<feature> 1 </feature>
				<threshold> 0.0 </threshold>
				<split pos="left">
					<feature> 3 </feature>
					<threshold> 3.2300642 </threshold>
					<split pos="left">
						<feature> 3 </feature>
						<threshold> 2.7636075 </threshold>
						<split pos="left">
							<feature> 3 </feature>
							<threshold> 1.5243813 </threshold>
							<split pos="left">
								<output> -1.0026376247406006 </output>
							</split>
							<split pos="right">
								<output> -1.0027674436569214 </output>
							</split>
						</split>
						<split pos="right">
							<output> -1.0026549100875854 </output>
						</split>
					</split>
					<split pos="right">
						<feature> 3 </feature>
						<threshold> 3.5612235 </threshold>
						<split pos="left">
							<output> -0.99704509973526 </output>
						</split>
						<split pos="right">
							<output> -1.0026240348815918 </output>
						</split>
					</split>
				</split>
				<split pos="right">
					<output> -1.0026845932006836 </output>
				</split>
			</split>
			<split pos="right">
				<feature> 3 </feature>
				<threshold> 4.5697203 </threshold>
				<split pos="left">
					<output> 1.0026735067367554 </output>
				</split>
				<split pos="right">
					<feature> 3 </feature>
					<threshold> 4.8277845 </threshold>
					<split pos="left">
						<feature> 1 </feature>
						<threshold> 0.0 </threshold>
						<split pos="left">
							<output> 1.0030547380447388 </output>
						</split>
						<split pos="right">
							<output> -1.0030155181884766 </output>
						</split>
					</split>
					<split pos="right">
						<output> -1.0026240348815918 </output>
					</split>
				</split>
			</split>
		</split>
	</tree>
	<tree id="28" weight="0.1">
		<split>
			<feature> 3 </feature>
			<threshold> 4.222002 </threshold>
			<split pos="left">
				<feature> 1 </feature>
				<threshold> 0.0 </threshold>
				<split pos="left">
					<feature> 3 </feature>
					<threshold> 3.2300642 </threshold>
					<split pos="left">
						<feature> 3 </feature>
						<threshold> 2.7636075 </threshold>
						<split pos="left">
							<feature> 3 </feature>
							<threshold> 1.5243813 </threshold>
							<split pos="left">
								<output> -1.0021950006484985 </output>
							</split>
							<split pos="right">
								<output> -1.002286434173584 </output>
							</split>
						</split>
						<split pos="right">
							<output> -1.002209186553955 </output>
						</split>
					</split>
					<split pos="right">
						<feature> 3 </feature>
						<threshold> 3.5612235 </threshold>
						<split pos="left">
							<output> -0.9951402544975281 </output>
						</split>
						<split pos="right">
							<output> -1.0021839141845703 </output>
						</split>
					</split>
				</split>
				<split pos="right">
					<output> -1.002072811126709 </output>
				</split>
			</split>
			<split pos="right">
				<feature> 3 </feature>
				<threshold> 4.5697203 </threshold>
				<split pos="left">
					<output> 1.0021878480911255 </output>
				</split>
				<split pos="right">
					<feature> 3 </feature>
					<threshold> 4.8277845 </threshold>
					<split pos="left">
						<feature> 1 </feature>
						<threshold> 0.0 </threshold>
						<split pos="left">
							<output> 1.0024998188018799 </output>
						</split>
						<split pos="right">
							<output> -1.0024946928024292 </output>
						</split>
					</split>
					<split pos="right">
						<output> -1.0021839141845703 </output>
					</split>
				</split>
			</split>
		</split>
	</tree>
	<tree id="29" weight="0.1">
		<split>
			<feature> 3 </feature>
			<threshold> 4.222002 </threshold>
			<split pos="left">
				<feature> 1 </feature>
				<threshold> 0.0 </threshold>
				<split pos="left">
					<feature> 3 </feature>
					<threshold> 3.2300642 </threshold>
					<split pos="left">
						<feature> 3 </feature>
						<threshold> 2.7636075 </threshold>
						<split pos="left">
							<feature> 3 </feature>
							<threshold> 1.5243813 </threshold>
							<split pos="left">
								<output> -1.0018411874771118 </output>
							</split>
							<split pos="right">
								<output> -1.001897931098938 </output>
							</split>
						</split>
						<split pos="right">
							<output> -1.0018527507781982 </output>
						</split>
					</split>
					<split pos="right">
						<feature> 3 </feature>
						<threshold> 3.5612235 </threshold>
						<split pos="left">
							<output> -0.9930492043495178 </output>
						</split>
						<split pos="right">
							<output> -1.0018320083618164 </output>
						</split>
					</split>
				</split>
				<split pos="right">
					<output> -1.0015448331832886 </output>
				</split>
			</split>
			<split pos="right">
				<feature> 3 </feature>
				<threshold> 4.5697203 </threshold>
				<split pos="left">
					<output> 1.0017906427383423 </output>
				</split>
				<split pos="right">
					<feature> 3 </feature>
					<threshold> 4.8277845 </threshold>
					<split pos="left">
						<feature> 1 </feature>
						<threshold> 0.0 </threshold>
						<split pos="left">
							<output> 1.002045750617981 </output>
						</split>
						<split pos="right">
							<output> -1.0020745992660522 </output>
						</split>
					</split>
					<split pos="right">
						<output> -1.0018320083618164 </output>
					</split>
				</split>
			</split>
		</split>
	</tree>
	<tree id="30" weight="0.1">
		<split>
			<feature> 3 </feature>
			<threshold> 4.222002 </threshold>
			<split pos="left">
				<feature> 1 </feature>
				<threshold> 0.0 </threshold>
				<split pos="left">
					<feature> 3 </feature>
					<threshold> 3.2300642 </threshold>
					<split pos="left">
						<feature> 3 </feature>
						<threshold> 2.7636075 </threshold>
						<split pos="left">
							<feature> 3 </feature>
							<threshold> 1.5243813 </threshold>
							<split pos="left">
								<output> -1.0015615224838257 </output>
							</split>
							<split pos="right">
								<output> -1.0015859603881836 </output>
							</split>
						</split>
						<split pos="right">
							<output> -1.0015709400177002 </output>
						</split>
					</split>
					<split pos="right">
						<feature> 3 </feature>
						<threshold> 3.5612235 </threshold>
						<split pos="left">
							<output> -0.9906913638114929 </output>
						</split>
						<split pos="right">
							<output> -1.0015538930892944 </output>
						</split>
					</split>
				</split>
				<split pos="right">
					<output> -1.0010793209075928 </output>
				</split>
			</split>
			<split pos="right">
				<feature> 3 </feature>
				<threshold> 4.5697203 </threshold>
				<split pos="left">
					<output> 1.0014655590057373 </output>
				</split>
				<split pos="right">
					<feature> 3 </feature>
					<threshold> 4.8277845 </threshold>
					<split pos="left">
						<feature> 1 </feature>
						<threshold> 0.0 </threshold>
						<split pos="left">
							<output> 1.0016745328903198 </output>
						</split>
						<split pos="right">
							<output> -1.001738429069519 </output>
						</split>
					</split>
					<split pos="right">
						<output> -1.0015538930892944 </output>
					</split>
				</split>
			</split>
		</split>
	</tree>
	<tree id="31" weight="0.1">
		<split>
			<feature> 3 </feature>
			<threshold> 4.222002 </threshold>
			<split pos="left">
				<feature> 3 </feature>
				<threshold> 3.9468048 </threshold>
				<split pos="left">
					<feature> 3 </feature>
					<threshold> 3.2300642 </threshold>
					<split pos="left">
						<feature> 3 </feature>
						<threshold> 2.7636075 </threshold>
						<split pos="left">
							<feature> 3 </feature>
							<threshold> 1.5243813 </threshold>
							<split pos="left">
								<output> -1.0013446807861328 </output>
							</split>
							<split pos="right">
								<output> -1.0013377666473389 </output>
							</split>
						</split>
						<split pos="right">
							<output> -1.001352310180664 </output>
						</split>
					</split>
					<split pos="right">
						<feature> 3 </feature>
						<threshold> 3.5612235 </threshold>
						<split pos="left">
							<output> -0.987977147102356 </output>
						</split>
						<split pos="right">
							<output> -1.0013383626937866 </output>
						</split>
					</split>
				</split>
				<split pos="right">
					<output> -1.0006572008132935 </output>
				</split>
			</split>
			<split pos="right">
				<feature> 3 </feature>
				<threshold> 4.5697203 </threshold>
				<split pos="left">
					<output> 1.0011996030807495 </output>
				</split>
				<split pos="right">
					<feature> 3 </feature>
					<threshold> 4.8277845 </threshold>
					<split pos="left">
						<feature> 1 </feature>
						<threshold> 0.0 </threshold>
						<split pos="left">
							<output> 1.0013707876205444 </output>
						</split>
						<split pos="right">
							<output> -1.001471996307373 </output>
						</split>
					</split>
					<split pos="right">
						<output> -1.0013383626937866 </output>
					</split>
				</split>
			</split>
		</split>
	</tree>
	<tree id="32" weight="0.1">
		<split>
			<feature> 3 </feature>
			<threshold> 4.222002 </threshold>
			<split pos="left">
				<feature> 1 </feature>
				<threshold> 0.0 </threshold>
				<split pos="left">
					<feature> 3 </feature>
					<threshold> 3.2300642 </threshold>
					<split pos="left">
						<feature> 3 </feature>
						<threshold> 2.7636075 </threshold>
						<split pos="left">
							<feature> 3 </feature>
							<threshold> 1.5243813 </threshold>
							<split pos="left">
								<output> -1.001181721687317 </output>
							</split>
							<split pos="right">
								<output> -1.001143455505371 </output>
							</split>
						</split>
						<split pos="right">
							<output> -1.0011881589889526 </output>
						</split>
					</split>
					<split pos="right">
						<feature> 3 </feature>
						<threshold> 3.5612235 </threshold>
						<split pos="left">
							<output> -0.9848053455352783 </output>
						</split>
						<split pos="right">
							<output> -1.0011765956878662 </output>
						</split>
					</split>
				</split>
				<split pos="right">
					<output> -1.0002614259719849 </output>
				</split>
			</split>
			<split pos="right">
				<feature> 3 </feature>
				<threshold> 4.5697203 </threshold>
				<split pos="left">
					<output> 1.0009820461273193 </output>
				</split>
				<split pos="right">
					<feature> 3 </feature>
					<threshold> 4.8277845 </threshold>
					<split pos="left">
						<feature> 1 </feature>
						<threshold> 0.0 </threshold>
						<split pos="left">
							<output> 1.001122236251831 </output>
						</split>
						<split pos="right">
							<output> -1.001265048980713 </output>
						</split>
					</split>
					<split pos="right">
						<output> -1.0011765956878662 </output>
					</split>
				</split>
			</split>
		</split>
	</tree>
	<tree id="33" weight="0.1">
		<split>
			<feature> 3 </feature>
			<threshold> 4.222002 </threshold>
			<split pos="left">
				<feature> 1 </feature>
				<threshold> 0.0 </threshold>
				<split pos="left">
					<feature> 3 </feature>
					<threshold> 3.2300642 </threshold>
					<split pos="left">
						<feature> 3 </feature>
						<threshold> 2.7636075 </threshold>
						<split pos="left">
							<feature> 3 </feature>
							<threshold> 1.5243813 </threshold>
							<split pos="left">
								<output> -1.0010662078857422 </output>
							</split>
							<split pos="right">
								<output> -1.00099515914917 </output>
							</split>
						</split>
						<split pos="right">
							<output> -1.0010716915130615 </output>
						</split>
					</split>
					<split pos="right">
						<feature> 3 </feature>
						<threshold> 3.5612235 </threshold>
						<split pos="left">
							<output> -0.9810598492622375 </output>
						</split>
						<split pos="right">
							<output> -1.0010619163513184 </output>
						</split>
					</split>
				</split>
				<split pos="right">
					<output> -0.9998760223388672 </output>
				</split>
			</split>
			<split pos="right">
				<feature> 3 </feature>
				<threshold> 4.5697203 </threshold>
				<split pos="left">
					<output> 1.000803828239441 </output>
				</split>
				<split pos="right">
					<feature> 3 </feature>
					<threshold> 4.8277845 </threshold>
					<split pos="left">
						<feature> 1 </feature>
						<threshold> 0.0 </threshold>
						<split pos="left">
							<output> 1.0009187459945679 </output>
						</split>
						<split pos="right">
							<output> -1.0011086463928223 </output>
						</split>
					</split>
					<split pos="right">
						<output> -1.0010619163513184 </output>
					</split>
				</split>
			</split>
		</split>
	</tree>
	<tree id="34" weight="0.1">
		<split>
			<feature> 3 </feature>
			<threshold> 4.222002 </threshold>
			<split pos="left">
				<feature> 1 </feature>
				<threshold> 0.0 </threshold>
				<split pos="left">
					<feature> 3 </feature>
					<threshold> 3.2300642 </threshold>
					<split pos="left">
						<feature> 3 </feature>
						<threshold> 2.7636075 </threshold>
						<split pos="left">
							<feature> 3 </feature>
							<threshold> 1.5243813 </threshold>
							<split pos="left">
								<output> -1.000993013381958 </output>
							</split>
							<split pos="right">
								<output> -1.0008864402770996 </output>
							</split>
						</split>
						<split pos="right">
							<output> -1.000997543334961 </output>
						</split>
					</split>
					<split pos="right">
						<feature> 3 </feature>
						<threshold> 3.5612235 </threshold>
						<split pos="left">
							<output> -0.9766072630882263 </output>
						</split>
						<split pos="right">
							<output> -1.0009894371032715 </output>
						</split>
					</split>
				</split>
				<split pos="right">
					<output> -0.9994849562644958 </output>
				</split>
			</split>
			<split pos="right">
				<feature> 3 </feature>
				<threshold> 4.5697203 </threshold>
				<split pos="left">
					<output> 1.0006582736968994 </output>
				</split>
				<split pos="right">
					<feature> 3 </feature>
					<threshold> 4.8277845 </threshold>
					<split pos="left">
						<feature> 1 </feature>
						<threshold> 0.0 </threshold>
						<split pos="left">
							<output> 1.0007522106170654 </output>
						</split>
						<split pos="right">
							<output> -1.000996708869934 </output>
						</split>
					</split>
					<split pos="right">
						<output> -1.0009894371032715 </output>
					</split>
				</split>
			</split>
		</split>
	</tree>
	<tree id="35" weight="0.1">
		<split>
			<feature> 3 </feature>
			<threshold> 4.222002 </threshold>
			<split pos="left">
				<feature> 1 </feature>
				<threshold> 0.0 </threshold>
				<split pos="left">
					<feature> 3 </feature>
					<threshold> 3.2300642 </threshold>
					<split pos="left">
						<feature> 3 </feature>
						<threshold> 2.7636075 </threshold>
						<split pos="left">
							<feature> 3 </feature>
							<threshold> 1.5243813 </threshold>
							<split pos="left">
								<output> -1.0009591579437256 </output>
							</split>
							<split pos="right">
								<output> -1.0008131265640259 </output>
							</split>
						</split>
						<split pos="right">
							<output> -1.0009632110595703 </output>
						</split>
					</split>
					<split pos="right">
						<feature> 3 </feature>
						<threshold> 3.5612235 </threshold>
						<split pos="left">
							<output> -0.9712934494018555 </output>
						</split>
						<split pos="right">
							<output> -1.0009562969207764 </output>
						</split>
					</split>
				</split>
				<split pos="right">
					<output> -0.9990723729133606 </output>
				</split>
			</split>
			<split pos="right">
				<feature> 3 </feature>
				<threshold> 4.5697203 </threshold>
				<split pos="left">
					<output> 1.0005388259887695 </output>
				</split>
				<split pos="right">
					<feature> 3 </feature>
					<threshold> 4.8277845 </threshold>
					<split pos="left">
						<feature> 1 </feature>
						<threshold> 0.0 </threshold>
						<split pos="left">
							<output> 1.0006160736083984 </output>
						</split>
						<split pos="right">
							<output> -1.0009244680404663 </output>
						</split>
					</split>
					<split pos="right">
						<output> -1.0009562969207764 </output>
					</split>
				</split>
			</split>
		</split>
	</tree>
	<tree id="36" weight="0.1">
		<split>
			<feature> 3 </feature>
			<threshold> 4.222002 </threshold>
			<split pos="left">
				<feature> 1 </feature>
				<threshold> 0.0 </threshold>
				<split pos="left">
					<feature> 3 </feature>
					<threshold> 3.2300642 </threshold>
					<split pos="left">
						<feature> 3 </feature>
						<threshold> 2.7636075 </threshold>
						<split pos="left">
							<feature> 3 </feature>
							<threshold> 1.5243813 </threshold>
							<split pos="left">
								<output> -1.0009633302688599 </output>
							</split>
							<split pos="right">
								<output> -1.0007721185684204 </output>
							</split>
						</split>
						<split pos="right">
							<output> -1.0009665489196777 </output>
						</split>
					</split>
					<split pos="right">
						<feature> 3 </feature>
						<threshold> 3.5612235 </threshold>
						<split pos="left">
							<output> -0.9649410843849182 </output>
						</split>
						<split pos="right">
							<output> -1.0009607076644897 </output>
						</split>
					</split>
				</split>
				<split pos="right">
					<output> -0.9986211061477661 </output>
				</split>
			</split>
			<split pos="right">
				<feature> 3 </feature>
				<threshold> 4.5697203 </threshold>
				<split pos="left">
					<output> 1.0004411935806274 </output>
				</split>
				<split pos="right">
					<feature> 3 </feature>
					<threshold> 4.8277845 </threshold>
					<split pos="left">
						<feature> 1 </feature>
						<threshold> 0.0 </threshold>
						<split pos="left">
							<output> 1.000504493713379 </output>
						</split>
						<split pos="right">
							<output> -1.000888705253601 </output>
						</split>
					</split>
					<split pos="right">
						<output> -1.0009607076644897 </output>
					</split>
				</split>
			</split>
		</split>
	</tree>
	<tree id="37" weight="0.1">
		<split>
			<feature> 3 </feature>
			<threshold> 4.222002 </threshold>
			<split pos="left">
				<feature> 1 </feature>
				<threshold> 0.0 </threshold>
				<split pos="left">
					<feature> 3 </feature>
					<threshold> 3.2300642 </threshold>
					<split pos="left">
						<feature> 3 </feature>
						<threshold> 2.7636075 </threshold>
						<split pos="left">
							<feature> 3 </feature>
							<threshold> 1.5243813 </threshold>
							<split pos="left">
								<output> -1.0010048151016235 </output>
							</split>
							<split pos="right">
								<output> -1.0007613897323608 </output>
							</split>
						</split>
						<split pos="right">
							<output> -1.0010075569152832 </output>
						</split>
					</split>
					<split pos="right">
						<feature> 3 </feature>
						<threshold> 3.5612235 </threshold>
						<split pos="left">
							<output> -0.9573476910591125 </output>
						</split>
						<split pos="right">
							<output> -1.001002550125122 </output>
						</split>
					</split>
				</split>
				<split pos="right">
					<output> -0.9981123805046082 </output>
				</split>
			</split>
			<split pos="right">
				<feature> 3 </feature>
				<threshold> 4.5697203 </threshold>
				<split pos="left">
					<output> 1.0003613233566284 </output>
				</split>
				<split pos="right">
					<feature> 3 </feature>
					<threshold> 4.8277845 </threshold>
					<split pos="left">
						<feature> 1 </feature>
						<threshold> 0.0 </threshold>
						<split pos="left">
							<output> 1.000413179397583 </output>
						</split>
						<split pos="right">
							<output> -1.0008879899978638 </output>
						</split>
					</split>
					<split pos="right">
						<output> -1.001002550125122 </output>
					</split>
				</split>
			</split>
		</split>
	</tree>
	<tree id="38" weight="0.1">
		<split>
			<feature> 3 </feature>
			<threshold> 4.222002 </threshold>
			<split pos="left">
				<feature> 1 </feature>
				<threshold> 0.0 </threshold>
				<split pos="left">
					<feature> 3 </feature>
					<threshold> 3.2300642 </threshold>
					<split pos="left">
						<feature> 3 </feature>
						<threshold> 2.7636075 </threshold>
						<split pos="left">
							<feature> 3 </feature>
							<threshold> 1.5243813 </threshold>
							<split pos="left">
								<output> -1.001084804534912 </output>
							</split>
							<split pos="right">
								<output> -1.0007802248001099 </output>
							</split>
						</split>
						<split pos="right">
							<output> -1.0010873079299927 </output>
						</split>
					</split>
					<split pos="right">
						<feature> 3 </feature>
						<threshold> 3.5612235 </threshold>
						<split pos="left">
							<output> -0.948283851146698 </output>
						</split>
						<split pos="right">
							<output> -1.0010827779769897 </output>
						</split>
					</split>
				</split>
				<split pos="right">
					<output> -0.9975247979164124 </output>
				</split>
			</split>
			<split pos="right">
				<feature> 3 </feature>
				<threshold> 4.5697203 </threshold>
				<split pos="left">
					<output> 1.000295877456665 </output>
				</split>
				<split pos="right">
					<feature> 3 </feature>
					<threshold> 4.8277845 </threshold>
					<split pos="left">
						<feature> 1 </feature>
						<threshold> 0.0 </threshold>
						<split pos="left">
							<output> 1.0003384351730347 </output>
						</split>
						<split pos="right">
							<output> -1.000921607017517 </output>
						</split>
					</split>
					<split pos="right">
						<output> -1.0010827779769897 </output>
					</split>
				</split>
			</split>
		</split>
	</tree>
	<tree id="39" weight="0.1">
		<split>
			<feature> 3 </feature>
			<threshold> 4.222002 </threshold>
			<split pos="left">
				<feature> 1 </feature>
				<threshold> 0.0 </threshold>
				<split pos="left">
					<feature> 3 </feature>
					<threshold> 3.2300642 </threshold>
					<split pos="left">
						<feature> 3 </feature>
						<threshold> 2.7636075 </threshold>
						<split pos="left">
							<feature> 3 </feature>
							<threshold> 1.5243813 </threshold>
							<split pos="left">
								<output> -1.0012058019638062 </output>
							</split>
							<split pos="right">
								<output> -1.0008288621902466 </output>
							</split>
						</split>
						<split pos="right">
							<output> -1.0012080669403076 </output>
						</split>
					</split>
					<split pos="right">
						<feature> 3 </feature>
						<threshold> 3.5612235 </threshold>
						<split pos="left">
							<output> -0.9374943375587463 </output>
						</split>
						<split pos="right">
							<output> -1.0012038946151733 </output>
						</split>
					</split>
				</split>
				<split pos="right">
					<output> -0.996833086013794 </output>
				</split>
			</split>
			<split pos="right">
				<feature> 3 </feature>
				<threshold> 4.5697203 </threshold>
				<split pos="left">
					<output> 1.0002423524856567 </output>
				</split>
				<split pos="right">
					<feature> 3 </feature>
					<threshold> 4.8277845 </threshold>
					<split pos="left">
						<feature> 1 </feature>
						<threshold> 0.0 </threshold>
						<split pos="left">
							<output> 1.0002772808074951 </output>
						</split>
						<split pos="right">
							<output> -1.000990390777588 </output>
						</split>
					</split>
					<split pos="right">
						<output> -1.0012038946151733 </output>
					</split>
				</split>
			</split>
		</split>
	</tree>
	<tree id="40" weight="0.1">
		<split>
			<feature> 3 </feature>
			<threshold> 4.222002 </threshold>
			<split pos="left">
				<feature> 1 </feature>
				<threshold> 0.0 </threshold>
				<split pos="left">
					<feature> 3 </feature>
					<threshold> 3.2300642 </threshold>
					<split pos="left">
						<feature> 3 </feature>
						<threshold> 2.7636075 </threshold>
						<split pos="left">
							<feature> 3 </feature>
							<threshold> 1.5243813 </threshold>
							<split pos="left">
								<output> -1.0013712644577026 </output>
							</split>
							<split pos="right">
								<output> -1.0009084939956665 </output>
							</split>
						</split>
						<split pos="right">
							<output> -1.001373529434204 </output>
						</split>
					</split>
					<split pos="right">
						<feature> 3 </feature>
						<threshold> 3.5612235 </threshold>
						<split pos="left">
							<output> -0.9247005581855774 </output>
						</split>
						<split pos="right">
							<output> -1.0013694763183594 </output>
						</split>
					</split>
				</split>
				<split pos="right">
					<output> -0.99600750207901 </output>
				</split>
			</split>
			<split pos="right">
				<feature> 3 </feature>
				<threshold> 4.5697203 </threshold>
				<split pos="left">
					<output> 1.0001983642578125 </output>
				</split>
				<split pos="right">
					<feature> 3 </feature>
					<threshold> 4.8277845 </threshold>
					<split pos="left">
						<feature> 1 </feature>
						<threshold> 0.0 </threshold>
						<split pos="left">
							<output> 1.0002272129058838 </output>
						</split>
						<split pos="right">
							<output> -1.001096248626709 </output>
						</split>
					</split>
					<split pos="right">
						<output> -1.0013694763183594 </output>
					</split>
				</split>
			</split>
		</split>
	</tree>
	<tree id="41" weight="0.1">
		<split>
			<feature> 3 </feature>
			<threshold> 4.222002 </threshold>
			<split pos="left">
				<feature> 1 </feature>
				<threshold> 0.0 </threshold>
				<split pos="left">
					<feature> 3 </feature>
					<threshold> 3.2300642 </threshold>
					<split pos="left">
						<feature> 3 </feature>
						<threshold> 2.7636075 </threshold>
						<split pos="left">
							<feature> 3 </feature>
							<threshold> 1.5243813 </threshold>
							<split pos="left">
								<output> -1.0015861988067627 </output>
							</split>
							<split pos="right">
								<output> -1.0010215044021606 </output>
							</split>
						</split>
						<split pos="right">
							<output> -1.0015884637832642 </output>
						</split>
					</split>
					<split pos="right">
						<feature> 3 </feature>
						<threshold> 3.5612235 </threshold>
						<split pos="left">
							<output> -0.9096069931983948 </output>
						</split>
						<split pos="right">
							<output> -1.0015844106674194 </output>
						</split>
					</split>
				</split>
				<split pos="right">
					<output> -0.9950117468833923 </output>
				</split>
			</split>
			<split pos="right">
				<feature> 3 </feature>
				<threshold> 4.5697203 </threshold>
				<split pos="left">
					<output> 1.0001623630523682 </output>
				</split>
				<split pos="right">
					<feature> 3 </feature>
					<threshold> 4.8277845 </threshold>
					<split pos="left">
						<feature> 1 </feature>
						<threshold> 0.0 </threshold>
						<split pos="left">
							<output> 1.0001862049102783 </output>
						</split>
						<split pos="right">
							<output> -1.0012425184249878 </output>
						</split>
					</split>
					<split pos="right">
						<output> -1.0015844106674194 </output>
					</split>
				</split>
			</split>
		</split>
	</tree>
	<tree id="42" weight="0.1">
		<split>
			<feature> 3 </feature>
			<threshold> 4.222002 </threshold>
			<split pos="left">
				<feature> 1 </feature>
				<threshold> 0.0 </threshold>
				<split pos="left">
					<feature> 3 </feature>
					<threshold> 3.2300642 </threshold>
					<split pos="left">
						<feature> 3 </feature>
						<threshold> 2.7636075 </threshold>
						<split pos="left">
							<feature> 3 </feature>
							<threshold> 1.5243813 </threshold>
							<split pos="left">
								<output> -1.0018569231033325 </output>
							</split>
							<split pos="right">
								<output> -1.0011707544326782 </output>
							</split>
						</split>
						<split pos="right">
							<output> -1.001859188079834 </output>
						</split>
					</split>
					<split pos="right">
						<feature> 3 </feature>
						<threshold> 3.5612235 </threshold>
						<split pos="left">
							<output> -0.8919115662574768 </output>
						</split>
						<split pos="right">
							<output> -1.0018548965454102 </output>
						</split>
					</split>
				</split>
				<split pos="right">
					<output> -0.9938017725944519 </output>
				</split>
			</split>
			<split pos="right">
				<feature> 3 </feature>
				<threshold> 4.5697203 </threshold>
				<split pos="left">
					<output> 1.0001331567764282 </output>
				</split>
				<split pos="right">
					<feature> 3 </feature>
					<threshold> 4.8277845 </threshold>
					<split pos="left">
						<feature> 1 </feature>
						<threshold> 0.0 </threshold>
						<split pos="left">
							<output> 1.0001527070999146 </output>
						</split>
						<split pos="right">
							<output> -1.0014328956604004 </output>
						</split>
					</split>
					<split pos="right">
						<output> -1.0018548965454102 </output>
					</split>
				</split>
			</split>
		</split>
	</tree>
	<tree id="43" weight="0.1">
		<split>
			<feature> 3 </feature>
			<threshold> 4.222002 </threshold>
			<split pos="left">
				<feature> 1 </feature>
				<threshold> 0.0 </threshold>
				<split pos="left">
					<feature> 3 </feature>
					<threshold> 3.2300642 </threshold>
					<split pos="left">
						<feature> 3 </feature>
						<threshold> 2.7636075 </threshold>
						<split pos="left">
							<feature> 3 </feature>
							<threshold> 1.5243813 </threshold>
							<split pos="left">
								<output> -1.0021902322769165 </output>
							</split>
							<split pos="right">
								<output> -1.001360535621643 </output>
							</split>
						</split>
						<split pos="right">
							<output> -1.002192735671997 </output>
						</split>
					</split>
					<split pos="right">
						<feature> 3 </feature>
						<threshold> 3.5612235 </threshold>
						<split pos="left">
							<output> -0.8713224530220032 </output>
						</split>
						<split pos="right">
							<output> -1.0021880865097046 </output>
						</split>
					</split>
				</split>
				<split pos="right">
					<output> -0.9923229217529297 </output>
				</split>
			</split>
			<split pos="right">
				<feature> 3 </feature>
				<threshold> 4.5697203 </threshold>
				<split pos="left">
					<output> 1.000109076499939 </output>
				</split>
				<split pos="right">
					<feature> 3 </feature>
					<threshold> 4.8277845 </threshold>
					<split pos="left">
						<feature> 1 </feature>
						<threshold> 0.0 </threshold>
						<split pos="left">
							<output> 1.0001251697540283 </output>
						</split>
						<split pos="right">
							<output> -1.0016727447509766 </output>
						</split>
					</split>
					<split pos="right">
						<output> -1.0021880865097046 </output>
					</split>
				</split>
			</split>
		</split>
	</tree>
	<tree id="44" weight="0.1">
		<split>
			<feature> 3 </feature>
			<threshold> 4.222002 </threshold>
			<split pos="left">
				<feature> 1 </feature>
				<threshold> 0.0 </threshold>
				<split pos="left">
					<feature> 3 </feature>
					<threshold> 3.2300642 </threshold>
					<split pos="left">
						<feature> 3 </feature>
						<threshold> 2.7636075 </threshold>
						<split pos="left">
							<feature> 3 </feature>
							<threshold> 1.5243813 </threshold>
							<split pos="left">
								<output> -1.0025947093963623 </output>
							</split>
							<split pos="right">
								<output> -1.001595139503479 </output>
							</split>
						</split>
						<split pos="right">
							<output> -1.002597689628601 </output>
						</split>
					</split>
					<split pos="right">
						<feature> 3 </feature>
						<threshold> 3.5612235 </threshold>
						<split pos="left">
							<output> -0.8475794792175293 </output>
						</split>
						<split pos="right">
							<output> -1.0025924444198608 </output>
						</split>
					</split>
				</split>
				<split pos="right">
					<output> -0.9905076622962952 </output>
				</split>
			</split>
			<split pos="right">
				<feature> 3 </feature>
				<threshold> 4.5697203 </threshold>
				<split pos="left">
					<output> 1.000089406967163 </output>
				</split>
				<split pos="right">
					<feature> 3 </feature>
					<threshold> 4.8277845 </threshold>
					<split pos="left">
						<feature> 1 </feature>
						<threshold> 0.0 </threshold>
						<split pos="left">
							<output> 1.0001026391983032 </output>
						</split>
						<split pos="right">
							<output> -1.0019681453704834 </output>
						</split>
					</split>
					<split pos="right">
						<output> -1.0025924444198608 </output>
					</split>
				</split>
			</split>
		</split>
	</tree>
	<tree id="45" weight="0.1">
		<split>
			<feature> 3 </feature>
			<threshold> 4.222002 </threshold>
			<split pos="left">
				<feature> 1 </feature>
				<threshold> 0.0 </threshold>
				<split pos="left">
					<feature> 3 </feature>
					<threshold> 3.2300642 </threshold>
					<split pos="left">
						<feature> 3 </feature>
						<threshold> 2.7636075 </threshold>
						<split pos="left">
							<feature> 3 </feature>
							<threshold> 1.5243813 </threshold>
							<split pos="left">
								<output> -1.0030797719955444 </output>
							</split>
							<split pos="right">
								<output> -1.0018800497055054 </output>
							</split>
						</split>
						<split pos="right">
							<output> -1.0030832290649414 </output>
						</split>
					</split>
					<split pos="right">
						<feature> 3 </feature>
						<threshold> 3.5612235 </threshold>
						<split pos="left">
							<output> -0.8204832673072815 </output>
						</split>
						<split pos="right">
							<output> -1.0030769109725952 </output>
						</split>
					</split>
				</split>
				<split pos="right">
					<output> -0.988272488117218 </output>
				</split>
			</split>
			<split pos="right">
				<feature> 3 </feature>
				<threshold> 4.5697203 </threshold>
				<split pos="left">
					<output> 1.0000731945037842 </output>
				</split>
				<split pos="right">
					<feature> 3 </feature>
					<threshold> 4.8277845 </threshold>
					<split pos="left">
						<feature> 1 </feature>
						<threshold> 0.0 </threshold>
						<split pos="left">
							<output> 1.0000842809677124 </output>
						</split>
						<split pos="right">
							<output> -1.002326488494873 </output>
						</split>
					</split>
					<split pos="right">
						<output> -1.0030769109725952 </output>
					</split>
				</split>
			</split>
		</split>
	</tree>
	<tree id="46" weight="0.1">
		<split>
			<feature> 3 </feature>
			<threshold> 4.222002 </threshold>
			<split pos="left">
				<feature> 1 </feature>
				<threshold> 0.0 </threshold>
				<split pos="left">
					<feature> 3 </feature>
					<threshold> 3.2300642 </threshold>
					<split pos="left">
						<feature> 3 </feature>
						<threshold> 2.7636075 </threshold>
						<split pos="left">
							<feature> 3 </feature>
							<threshold> 1.5243813 </threshold>
							<split pos="left">
								<output> -1.003654956817627 </output>
							</split>
							<split pos="right">
								<output> -1.0022215843200684 </output>
							</split>
						</split>
						<split pos="right">
							<output> -1.0036591291427612 </output>
						</split>
					</split>
					<split pos="right">
						<feature> 3 </feature>
						<threshold> 3.5612235 </threshold>
						<split pos="left">
							<output> -0.7899277806282043 </output>
						</split>
						<split pos="right">
							<output> -1.00365149974823 </output>
						</split>
					</split>
				</split>
				<split pos="right">
					<output> -0.9855132102966309 </output>
				</split>
			</split>
			<split pos="right">
				<feature> 3 </feature>
				<threshold> 4.5697203 </threshold>
				<split pos="left">
					<output> 1.000059962272644 </output>
				</split>
				<split pos="right">
					<feature> 3 </feature>
					<threshold> 4.8277845 </threshold>
					<split pos="left">
						<feature> 1 </feature>
						<threshold> 0.0 </threshold>
						<split pos="left">
							<output> 1.000069260597229 </output>
						</split>
						<split pos="right">
							<output> -1.002754807472229 </output>
						</split>
					</split>
					<split pos="right">
						<output> -1.00365149974823 </output>
					</split>
				</split>
			</split>
		</split>
	</tree>
	<tree id="47" weight="0.1">
		<split>
			<feature> 3 </feature>
			<threshold> 4.222002 </threshold>
			<split pos="left">
				<feature> 1 </feature>
				<threshold> 0.0 </threshold>
				<split pos="left">
					<feature> 3 </feature>
					<threshold> 3.2300642 </threshold>
					<split pos="left">
						<feature> 3 </feature>
						<threshold> 2.7636075 </threshold>
						<split pos="left">
							<feature> 3 </feature>
							<threshold> 1.5243813 </threshold>
							<split pos="left">
								<output> -1.0043303966522217 </output>
							</split>
							<split pos="right">
								<output> -1.0026252269744873 </output>
							</split>
						</split>
						<split pos="right">
							<output> -1.0043355226516724 </output>
						</split>
					</split>
					<split pos="right">
						<feature> 3 </feature>
						<threshold> 3.5612235 </threshold>
						<split pos="left">
							<output> -0.7559353709220886 </output>
						</split>
						<split pos="right">
							<output> -1.0043261051177979 </output>
						</split>
					</split>
				</split>
				<split pos="right">
					<output> -0.9821012616157532 </output>
				</split>
			</split>
			<split pos="right">
				<feature> 3 </feature>
				<threshold> 4.5697203 </threshold>
				<split pos="left">
					<output> 1.000049352645874 </output>
				</split>
				<split pos="right">
					<feature> 3 </feature>
					<threshold> 4.8277845 </threshold>
					<split pos="left">
						<feature> 1 </feature>
						<threshold> 0.0 </threshold>
						<split pos="left">
							<output> 1.0000567436218262 </output>
						</split>
						<split pos="right">
							<output> -1.0032614469528198 </output>
						</split>
					</split>
					<split pos="right">
						<output> -1.0043261051177979 </output>
					</split>
				</split>
			</split>
		</split>
	</tree>
	<tree id="48" weight="0.1">
		<split>
			<feature> 3 </feature>
			<threshold> 4.222002 </threshold>
			<split pos="left">
				<feature> 1 </feature>
				<threshold> 0.0 </threshold>
				<split pos="left">
					<feature> 3 </feature>
					<threshold> 3.2300642 </threshold>
					<split pos="left">
						<feature> 3 </feature>
						<threshold> 2.7636075 </threshold>
						<split pos="left">
							<feature> 3 </feature>
							<threshold> 1.5243813 </threshold>
							<split pos="left">
								<output> -1.0051155090332031 </output>
							</split>
							<split pos="right">
								<output> -1.003097653388977 </output>
							</split>
						</split>
						<split pos="right">
							<output> -1.0051220655441284 </output>
						</split>
					</split>
					<split pos="right">
						<feature> 3 </feature>
						<threshold> 3.5612235 </threshold>
						<split pos="left">
							<output> -0.7186880111694336 </output>
						</split>
						<split pos="right">
							<output> -1.0051101446151733 </output>
						</split>
					</split>
				</split>
				<split pos="right">
					<output> -0.9778777956962585 </output>
				</split>
			</split>
			<split pos="right">
				<feature> 3 </feature>
				<threshold> 4.5697203 </threshold>
				<split pos="left">
					<output> 1.0000402927398682 </output>
				</split>
				<split pos="right">
					<feature> 3 </feature>
					<threshold> 4.8277845 </threshold>
					<split pos="left">
						<feature> 1 </feature>
						<threshold> 0.0 </threshold>
						<split pos="left">
							<output> 1.000046730041504 </output>
						</split>
						<split pos="right">
							<output> -1.0038543939590454 </output>
						</split>
					</split>
					<split pos="right">
						<output> -1.0051101446151733 </output>
					</split>
				</split>
			</split>
		</split>
	</tree>
	<tree id="49" weight="0.1">
		<split>
			<feature> 3 </feature>
			<threshold> 4.222002 </threshold>
			<split pos="left">
				<feature> 1 </feature>
				<threshold> 0.0 </threshold>
				<split pos="left">
					<feature> 3 </feature>
					<threshold> 3.2300642 </threshold>
					<split pos="left">
						<feature> 3 </feature>
						<threshold> 2.7636075 </threshold>
						<split pos="left">
							<feature> 3 </feature>
							<threshold> 1.5243813 </threshold>
							<split pos="left">
								<output> -1.0060189962387085 </output>
							</split>
							<split pos="right">
								<output> -1.0036442279815674 </output>
							</split>
						</split>
						<split pos="right">
							<output> -1.006027102470398 </output>
						</split>
					</split>
					<split pos="right">
						<feature> 3 </feature>
						<threshold> 3.5612235 </threshold>
						<split pos="left">
							<output> -0.6785492300987244 </output>
						</split>
						<split pos="right">
							<output> -1.0060123205184937 </output>
						</split>
					</split>
				</split>
				<split pos="right">
					<output> -0.9726484417915344 </output>
				</split>
			</split>
			<split pos="right">
				<feature> 3 </feature>
				<threshold> 4.5697203 </threshold>
				<split pos="left">
					<output> 1.0000331401824951 </output>
				</split>
				<split pos="right">
					<feature> 3 </feature>
					<threshold> 4.8277845 </threshold>
					<split pos="left">
						<feature> 1 </feature>
						<threshold> 0.0 </threshold>
						<split pos="left">
							<output> 1.000038504600525 </output>
						</split>
						<split pos="right">
							<output> -1.0045413970947266 </output>
						</split>
					</split>
					<split pos="right">
						<output> -1.0060123205184937 </output>
					</split>
				</split>
			</split>
		</split>
	</tree>
	<tree id="50" weight="0.1">
		<split>
			<feature> 3 </feature>
			<threshold> 4.222002 </threshold>
			<split pos="left">
				<feature> 1 </feature>
				<threshold> 0.0 </threshold>
				<split pos="left">
					<feature> 3 </feature>
					<threshold> 3.2300642 </threshold>
					<split pos="left">
						<feature> 3 </feature>
						<threshold> 2.7636075 </threshold>
						<split pos="left">
							<feature> 3 </feature>
							<threshold> 1.5243813 </threshold>
							<split pos="left">
								<output> -1.0070475339889526 </output>
							</split>
							<split pos="right">
								<output> -1.0042698383331299 </output>
							</split>
						</split>
						<split pos="right">
							<output> -1.007057785987854 </output>
						</split>
					</split>
					<split pos="right">
						<feature> 3 </feature>
						<threshold> 3.5612235 </threshold>
						<split pos="left">
							<output> -0.636070728302002 </output>
						</split>
						<split pos="right">
							<output> -1.007039189338684 </output>
						</split>
					</split>
				</split>
				<split pos="right">
					<output> -0.9661779403686523 </output>
				</split>
			</split>
			<split pos="right">
				<feature> 3 </feature>
				<threshold> 4.5697203 </threshold>
				<split pos="left">
					<output> 1.0000271797180176 </output>
				</split>
				<split pos="right">
					<feature> 3 </feature>
					<threshold> 4.8277845 </threshold>
					<split pos="left">
						<feature> 1 </feature>
						<threshold> 0.0 </threshold>
						<split pos="left">
							<output> 1.0000317096710205 </output>
						</split>
						<split pos="right">
							<output> -1.0053287744522095 </output>
						</split>
					</split>
					<split pos="right">
						<output> -1.007039189338684 </output>
					</split>
				</split>
			</split>
		</split>
	</tree>
	<tree id="51" weight="0.1">
		<split>
			<feature> 3 </feature>
			<threshold> 4.222002 </threshold>
			<split pos="left">
				<feature> 3 </feature>
				<threshold> 3.9468048 </threshold>
				<split pos="left">
					<feature> 3 </feature>
					<threshold> 3.2300642 </threshold>
					<split pos="left">
						<feature> 3 </feature>
						<threshold> 2.7636075 </threshold>
						<split pos="left">
							<feature> 3 </feature>
							<threshold> 1.5243813 </threshold>
							<split pos="left">
								<output> -1.0082052946090698 </output>
							</split>
							<split pos="right">
								<output> -1.0049781799316406 </output>
							</split>
						</split>
						<split pos="right">
							<output> -1.0082182884216309 </output>
						</split>
					</split>
					<split pos="right">
						<feature> 3 </feature>
						<threshold> 3.5612235 </threshold>
						<split pos="left">
							<output> -0.591976523399353 </output>
						</split>
						<split pos="right">
							<output> -1.0081948041915894 </output>
						</split>
					</split>
				</split>
				<split pos="right">
					<output> -0.9581842422485352 </output>
				</split>
			</split>
			<split pos="right">
				<feature> 3 </feature>
				<threshold> 4.5697203 </threshold>
				<split pos="left">
					<output> 1.0000224113464355 </output>
				</split>
				<split pos="right">
					<feature> 3 </feature>
					<threshold> 4.8277845 </threshold>
					<split pos="left">
						<feature> 1 </feature>
						<threshold> 0.0 </threshold>
						<split pos="left">
							<output> 1.0000262260437012 </output>
						</split>
						<split pos="right">
							<output> -1.0062220096588135 </output>
						</split>
					</split>
					<split pos="right">
						<output> -1.0081948041915894 </output>
					</split>
				</split>
			</split>
		</split>
	</tree>
	<tree id="52" weight="0.1">
		<split>
			<feature> 3 </feature>
			<threshold> 4.222002 </threshold>
			<split pos="left">
				<feature> 3 </feature>
				<threshold> 3.9468048 </threshold>
				<split pos="left">
					<feature> 3 </feature>
					<threshold> 3.2300642 </threshold>
					<split pos="left">
						<feature> 3 </feature>
						<threshold> 2.7636075 </threshold>
						<split pos="left">
							<feature> 3 </feature>
							<threshold> 1.5243813 </threshold>
							<split pos="left">
								<output> -1.0094934701919556 </output>
							</split>
							<split pos="right">
								<output> -1.0057709217071533 </output>
							</split>
						</split>
						<split pos="right">
							<output> -1.009509801864624 </output>
						</split>
					</split>
					<split pos="right">
						<feature> 3 </feature>
						<threshold> 3.5612235 </threshold>
						<split pos="left">
							<output> -0.5471263527870178 </output>
						</split>
						<split pos="right">
							<output> -1.0094801187515259 </output>
						</split>
					</split>
				</split>
				<split pos="right">
					<output> -0.9483363628387451 </output>
				</split>
			</split>
			<split pos="right">
				<feature> 3 </feature>
				<threshold> 4.5697203 </threshold>
				<split pos="left">
					<output> 1.0000184774398804 </output>
				</split>
				<split pos="right">
					<feature> 3 </feature>
					<threshold> 4.8277845 </threshold>
					<split pos="left">
						<feature> 1 </feature>
						<threshold> 0.0 </threshold>
						<split pos="left">
							<output> 1.0000215768814087 </output>
						</split>
						<split pos="right">
							<output> -1.0072239637374878 </output>
						</split>
					</split>
					<split pos="right">
						<output> -1.0094801187515259 </output>
					</split>
				</split>
			</split>
		</split>
	</tree>
	<tree id="53" weight="0.1">
		<split>
			<feature> 3 </feature>
			<threshold> 4.222002 </threshold>
			<split pos="left">
				<feature> 1 </feature>
				<threshold> 0.0 </threshold>
				<split pos="left">
					<feature> 3 </feature>
					<threshold> 3.2300642 </threshold>
					<split pos="left">
						<feature> 3 </feature>
						<threshold> 2.7636075 </threshold>
						<split pos="left">
							<feature> 3 </feature>
							<threshold> 1.5243813 </threshold>
							<split pos="left">
								<output> -1.0109089612960815 </output>
							</split>
							<split pos="right">
								<output> -1.006648063659668 </output>
							</split>
						</split>
						<split pos="right">
							<output> -1.0109294652938843 </output>
						</split>
					</split>
					<split pos="right">
						<feature> 3 </feature>
						<threshold> 3.5612235 </threshold>
						<split pos="left">
							<output> -0.5024574995040894 </output>
						</split>
						<split pos="right">
							<output> -1.010892391204834 </output>
						</split>
					</split>
				</split>
				<split pos="right">
					<output> -0.9362511038780212 </output>
				</split>
			</split>
			<split pos="right">
				<feature> 3 </feature>
				<threshold> 4.5697203 </threshold>
				<split pos="left">
					<output> 1.000015139579773 </output>
				</split>
				<split pos="right">
					<feature> 3 </feature>
					<threshold> 4.8277845 </threshold>
					<split pos="left">
						<feature> 1 </feature>
						<threshold> 0.0 </threshold>
						<split pos="left">
							<output> 1.0000178813934326 </output>
						</split>
						<split pos="right">
							<output> -1.008334994316101 </output>
						</split>
					</split>
					<split pos="right">
						<output> -1.010892391204834 </output>
					</split>
				</split>
			</split>
		</split>
	</tree>
	<tree id="54" weight="0.1">
		<split>
			<feature> 3 </feature>
			<threshold> 4.222002 </threshold>
			<split pos="left">
				<feature> 1 </feature>
				<threshold> 0.0 </threshold>
				<split pos="left">
					<feature> 3 </feature>
					<threshold> 3.2300642 </threshold>
					<split pos="left">
						<feature> 3 </feature>
						<threshold> 2.7636075 </threshold>
						<split pos="left">
							<feature> 3 </feature>
							<threshold> 1.5243813 </threshold>
							<split pos="left">
								<output> -1.0124448537826538 </output>
							</split>
							<split pos="right">
								<output> -1.0076069831848145 </output>
							</split>
						</split>
						<split pos="right">
							<output> -1.0124703645706177 </output>
						</split>
					</split>
					<split pos="right">
						<feature> 3 </feature>
						<threshold> 3.5612235 </threshold>
						<split pos="left">
							<output> -0.4589166045188904 </output>
						</split>
						<split pos="right">
							<output> -1.0124242305755615 </output>
						</split>
					</split>
				</split>
				<split pos="right">
					<output> -0.9214984774589539 </output>
				</split>
			</split>
			<split pos="right">
				<feature> 3 </feature>
				<threshold> 4.5697203 </threshold>
				<split pos="left">
					<output> 1.0000125169754028 </output>
				</split>
				<split pos="right">
					<feature> 3 </feature>
					<threshold> 4.8277845 </threshold>
					<split pos="left">
						<feature> 1 </feature>
						<threshold> 0.0 </threshold>
						<split pos="left">
							<output> 1.0000149011611938 </output>
						</split>
						<split pos="right">
							<output> -1.0095528364181519 </output>
						</split>
					</split>
					<split pos="right">
						<output> -1.0124242305755615 </output>
					</split>
				</split>
			</split>
		</split>
	</tree>
	<tree id="55" weight="0.1">
		<split>
			<feature> 3 </feature>
			<threshold> 4.222002 </threshold>
			<split pos="left">
				<feature> 1 </feature>
				<threshold> 0.0 </threshold>
				<split pos="left">
					<feature> 3 </feature>
					<threshold> 3.2300642 </threshold>
					<split pos="left">
						<feature> 3 </feature>
						<threshold> 2.7636075 </threshold>
						<split pos="left">
							<feature> 3 </feature>
							<threshold> 1.5243813 </threshold>
							<split pos="left">
								<output> -1.0140899419784546 </output>
							</split>
							<split pos="right">
								<output> -1.008643388748169 </output>
							</split>
						</split>
						<split pos="right">
							<output> -1.014121413230896 </output>
						</split>
					</split>
					<split pos="right">
						<feature> 3 </feature>
						<threshold> 3.5612235 </threshold>
						<split pos="left">
							<output> -0.41738948225975037 </output>
						</split>
						<split pos="right">
							<output> -1.0140645503997803 </output>
						</split>
					</split>
				</split>
				<split pos="right">
					<output> -0.9036074280738831 </output>
				</split>
			</split>
			<split pos="right">
				<feature> 3 </feature>
				<threshold> 4.5697203 </threshold>
				<split pos="left">
					<output> 1.0000102519989014 </output>
				</split>
				<split pos="right">
					<feature> 3 </feature>
					<threshold> 4.8277845 </threshold>
					<split pos="left">
						<feature> 1 </feature>
						<threshold> 0.0 </threshold>
						<split pos="left">
							<output> 1.0000123977661133 </output>
						</split>
						<split pos="right">
							<output> -1.0108722448349 </output>
						</split>
					</split>
					<split pos="right">
						<output> -1.0140645503997803 </output>
					</split>
				</split>
			</split>
		</split>
	</tree>
	<tree id="56" weight="0.1">
		<split>
			<feature> 3 </feature>
			<threshold> 4.222002 </threshold>
			<split pos="left">
				<feature> 1 </feature>
				<threshold> 0.0 </threshold>
				<split pos="left">
					<feature> 3 </feature>
					<threshold> 3.2300642 </threshold>
					<split pos="left">
						<feature> 3 </feature>
